digraph Tree {
node [shape=box, fontname="helvetica"] ;
edge [fontname="helvetica"] ;
0 [label="Contract_Month-to-Month <= 0.5\ngini = 0.498\nsamples = 11200\nvalue = [5952.0, 5248.0]\nclass = No Churn"] ;
1 [label="Contract_One year <= 0.5\ngini = 0.229\nsamples = 4484\nvalue = [3892, 592]\nclass = No Churn"] ;
0 -> 1 [labeldistance=2.5, labelangle=45, headlabel="True"] ;
2 [label="TotalCharges <= 0.004\ngini = 0.107\nsamples = 2306\nvalue = [2175, 131]\nclass = No Churn"] ;
1 -> 2 ;
3 [label="TotalCharges <= 0.004\ngini = 0.117\nsamples = 2019\nvalue = [1893, 126]\nclass = No Churn"] ;
2 -> 3 ;
4 [label="TotalCharges <= 0.001\ngini = 0.115\nsamples = 2017\nvalue = [1893, 124]\nclass = No Churn"] ;
3 -> 4 ;
5 [label="gini = 0.093\nsamples = 1188\nvalue = [1130, 58]\nclass = No Churn"] ;
4 -> 5 ;
6 [label="gini = 0.147\nsamples = 829\nvalue = [763, 66]\nclass = No Churn"] ;
4 -> 6 ;
7 [label="gini = 0.0\nsamples = 2\nvalue = [0, 2]\nclass = Churn"] ;
3 -> 7 ;
8 [label="OnlineSecurity_Yes <= 0.5\ngini = 0.034\nsamples = 287\nvalue = [282, 5]\nclass = No Churn"] ;
2 -> 8 ;
9 [label="PaymentMethod_Unknown <= 0.5\ngini = 0.016\nsamples = 241\nvalue = [239, 2]\nclass = No Churn"] ;
8 -> 9 ;
10 [label="gini = 0.009\nsamples = 232\nvalue = [231, 1]\nclass = No Churn"] ;
9 -> 10 ;
11 [label="gini = 0.198\nsamples = 9\nvalue = [8, 1]\nclass = No Churn"] ;
9 -> 11 ;
12 [label="PaymentMethod_Bank transfer (automatic) <= 0.5\ngini = 0.122\nsamples = 46\nvalue = [43, 3]\nclass = No Churn"] ;
8 -> 12 ;
13 [label="gini = 0.053\nsamples = 37\nvalue = [36, 1]\nclass = No Churn"] ;
12 -> 13 ;
14 [label="gini = 0.346\nsamples = 9\nvalue = [7, 2]\nclass = No Churn"] ;
12 -> 14 ;
15 [label="TotalCharges <= 0.0\ngini = 0.334\nsamples = 2178\nvalue = [1717, 461]\nclass = No Churn"] ;
1 -> 15 ;
16 [label="OnlineBackup_Unknown <= 0.5\ngini = 0.32\nsamples = 5\nvalue = [1, 4]\nclass = Churn"] ;
15 -> 16 ;
17 [label="gini = 0.0\nsamples = 4\nvalue = [0, 4]\nclass = Churn"] ;
16 -> 17 ;
18 [label="gini = 0.0\nsamples = 1\nvalue = [1, 0]\nclass = No Churn"] ;
16 -> 18 ;
19 [label="Dependents_Unknown <= 0.5\ngini = 0.332\nsamples = 2173\nvalue = [1716, 457]\nclass = No Churn"] ;
15 -> 19 ;
20 [label="StreamingMovies_No <= 0.5\ngini = 0.326\nsamples = 2040\nvalue = [1622, 418]\nclass = No Churn"] ;
19 -> 20 ;
21 [label="gini = 0.37\nsamples = 383\nvalue = [289, 94]\nclass = No Churn"] ;
20 -> 21 ;
22 [label="gini = 0.315\nsamples = 1657\nvalue = [1333, 324]\nclass = No Churn"] ;
20 -> 22 ;
23 [label="TotalCharges <= 0.002\ngini = 0.414\nsamples = 133\nvalue = [94, 39]\nclass = No Churn"] ;
19 -> 23 ;
24 [label="gini = 0.343\nsamples = 100\nvalue = [78, 22]\nclass = No Churn"] ;
23 -> 24 ;
25 [label="gini = 0.5\nsamples = 33\nvalue = [16, 17]\nclass = Churn"] ;
23 -> 25 ;
26 [label="MonthlyCharges <= 0.065\ngini = 0.425\nsamples = 6716\nvalue = [2060, 4656]\nclass = Churn"] ;
0 -> 26 [labeldistance=2.5, labelangle=-45, headlabel="False"] ;
27 [label="OnlineSecurity_Yes <= 0.5\ngini = 0.427\nsamples = 6539\nvalue = [2023.0, 4516.0]\nclass = Churn"] ;
26 -> 27 ;
28 [label="MonthlyCharges <= 0.065\ngini = 0.422\nsamples = 5500\nvalue = [1665, 3835]\nclass = Churn"] ;
27 -> 28 ;
29 [label="TotalCharges <= 0.058\ngini = 0.422\nsamples = 5497\nvalue = [1662.0, 3835.0]\nclass = Churn"] ;
28 -> 29 ;
30 [label="gini = 0.422\nsamples = 5492\nvalue = [1658.0, 3834.0]\nclass = Churn"] ;
29 -> 30 ;
31 [label="gini = 0.32\nsamples = 5\nvalue = [4, 1]\nclass = No Churn"] ;
29 -> 31 ;
32 [label="gini = 0.0\nsamples = 3\nvalue = [3, 0]\nclass = No Churn"] ;
28 -> 32 ;
33 [label="MonthlyCharges <= 0.0\ngini = 0.452\nsamples = 1039\nvalue = [358, 681]\nclass = Churn"] ;
27 -> 33 ;
34 [label="gini = 0.0\nsamples = 5\nvalue = [5, 0]\nclass = No Churn"] ;
33 -> 34 ;
35 [label="MonthlyCharges <= 0.002\ngini = 0.45\nsamples = 1034\nvalue = [353, 681]\nclass = Churn"] ;
33 -> 35 ;
36 [label="gini = 0.342\nsamples = 73\nvalue = [16, 57]\nclass = Churn"] ;
35 -> 36 ;
37 [label="gini = 0.455\nsamples = 961\nvalue = [337, 624]\nclass = Churn"] ;
35 -> 37 ;
38 [label="TotalCharges <= 0.004\ngini = 0.331\nsamples = 177\nvalue = [37, 140]\nclass = Churn"] ;
26 -> 38 ;
39 [label="MultipleLines_Unknown <= 0.5\ngini = 0.137\nsamples = 54\nvalue = [4, 50]\nclass = Churn"] ;
38 -> 39 ;
40 [label="PhoneService <= 0.5\ngini = 0.107\nsamples = 53\nvalue = [3, 50]\nclass = Churn"] ;
39 -> 40 ;
41 [label="gini = 0.48\nsamples = 5\nvalue = [2, 3]\nclass = Churn"] ;
40 -> 41 ;
42 [label="gini = 0.041\nsamples = 48\nvalue = [1, 47]\nclass = Churn"] ;
40 -> 42 ;
43 [label="gini = 0.0\nsamples = 1\nvalue = [1, 0]\nclass = No Churn"] ;
39 -> 43 ;
44 [label="TotalCharges <= 0.004\ngini = 0.393\nsamples = 123\nvalue = [33, 90]\nclass = Churn"] ;
38 -> 44 ;
45 [label="MonthlyCharges <= 0.067\ngini = 0.42\nsamples = 10\nvalue = [7, 3]\nclass = No Churn"] ;
44 -> 45 ;
46 [label="gini = 0.48\nsamples = 5\nvalue = [2, 3]\nclass = Churn"] ;
45 -> 46 ;
47 [label="gini = 0.0\nsamples = 5\nvalue = [5, 0]\nclass = No Churn"] ;
45 -> 47 ;
48 [label="StreamingMovies_No <= 0.5\ngini = 0.354\nsamples = 113\nvalue = [26, 87]\nclass = Churn"] ;
44 -> 48 ;
49 [label="gini = 0.48\nsamples = 20\nvalue = [8, 12]\nclass = Churn"] ;
48 -> 49 ;
50 [label="gini = 0.312\nsamples = 93\nvalue = [18, 75]\nclass = Churn"] ;
48 -> 50 ;
}